{"levels":[{"inputs":[0.27361173799017857,0.3234621909145312,0.29657783268227755,0.3644231098683327,0.5425928775925662],"outputs":[0,0,0,0,1,1],"biases":[0.0003532907902695044,0.047749554155799095,0.11690786513888193,-0.2164131328371716,-0.284972686698118,-0.3970235429072365],"weights":[[0.20243139234394358,-0.30572232619600687,-0.2835087128846241,-0.16685670373330996,0.25808682850809145,0.12278756964556843],[0.18673937083591158,-0.235594331635273,-0.32779187694355727,-0.09216729434515944,-0.07525146339775407,-0.012560610039049836],[0.0340541418440823,-0.33693937668651297,-0.16898858570619715,-0.12932158493006912,-0.28997861592955704,0.39478408427338246],[-0.11336667438484842,-0.18575742869648795,0.25409974444436095,-0.37296711713193875,0.21669664377205536,-0.41276407964124706],[-0.19286249710319736,0.1310313117817978,0.12301025546647716,-0.06560799541753902,-0.5404952520284974,-0.16933234144873374]]},{"inputs":[0,0,0,0,1,1],"outputs":[1,1,1,0],"biases":[-0.05874739619439116,-0.07005898571973794,-0.15392386976195388,0.20126154032311938],"weights":[[-0.30356283342369256,-0.16912060766456666,-0.06795662720504807,-0.3228522369981933],[-0.05121406799232914,0.2693350371387121,0.3239289045168404,-0.4804596182254181],[-0.05152403480678669,-0.049326148321233575,-0.3329031895348128,0.13754550457341552],[0.023781403602650616,-0.14808254373889929,0.08555307651145733,-0.2144387364095357],[0.016609598694105263,0.08692497736763416,0.04311116694545778,0.18120263335405243],[0.23622619804365075,0.13279191628413384,0.5826661893583376,-0.3546167884855044]]}]}