{"levels":[{"inputs":[0.7371430589212962,0.7745581591392732,0.7951041422209055,0.8066782216043207,0.8024524540315059],"outputs":[0,0,0,0,0,0],"biases":[-0.07585855560575572,0.06292785157325592,0.10866752766637705,0.07561692175472678,0.22969697821562396,0.6039152671500938],"weights":[[0.7186950304333664,-0.011491508209257928,0.130864440282695,-0.7662600354010297,-0.14974058964511439,0.17331001337787183],[-0.22519680464215386,-0.3043917042229758,0.013794735757620247,-0.7892136074994214,-0.06439041161875236,0.4863072184321308],[-0.21539317685854936,0.3856194505506611,-0.3619504591238232,0.0011006055539989346,0.1286630758747903,-0.22558903368590627],[-0.21923661606759487,0.01156163422496942,0.000312423390941452,0.4912503193517731,-0.3997752713618213,-0.4754729268478737],[-0.12798098418653014,-0.3390153833241861,-0.1439066703983422,0.3258707570726098,-0.3998051801431717,0.2867772017014009]]},{"inputs":[0,0,0,0,0,0],"outputs":[1,0,1,0],"biases":[-0.336438992320683,0.5202611322764064,-0.044838876998908705,0.1205730285409023],"weights":[[0.6553795792473127,-0.36017977918002997,0.08302088846285027,0.005833700916712536],[-0.6550367454247157,-0.7352797732130303,-0.34677745256390874,-0.05176946262944365],[0.09386665111692509,-0.18757469916378877,0.7301334874250843,-0.47883115106739255],[0.7172567836393199,0.8055926867581877,-0.604638742193917,-0.45727733759198663],[0.6558150012152884,-0.23675079191700835,0.1713053690198051,0.02539407299548535],[0.3062205129395884,-0.6954481944587227,-0.05850372657735958,-0.6130595734856553]]}]}