{"levels":[{"inputs":[0.36539549809793337,0,0,0.4329503413035838,0.6874666464744412],"outputs":[1,0,0,1,1,0],"biases":[-0.2691571593329452,0.041069779610791834,0.403817684062048,-0.4221156899134658,-0.33893523606172676,-0.45206251173114037],"weights":[[0.5616948095810637,0.201543814105412,0.34512197702496383,0.4087629369483903,0.3127012416400044,-0.48439987743756463],[-0.3222624950630329,-0.5018261409098339,0.32806918469270724,-0.07392747069331324,-0.11210802912811815,0.21627146120487656],[-0.37134429247807876,0.167129948339433,0.34908835660911136,0.11363655876483464,-0.4147656845942209,0.5271652058705305],[-0.41702181876023114,-0.09065171935130287,-0.407533574719484,-0.6853353142996527,0.5723641913999582,-0.03220704446653688],[0.08551620448462793,0.009299390521754713,-0.003013462443690093,0.1074080674135976,-0.9345604813403094,-0.48287772664014356]]},{"inputs":[1,0,0,1,1,0],"outputs":[1,1,0,0],"biases":[0.6143892876867156,-0.4428630059836586,0.07689274760231665,0.655461877638589],"weights":[[0.3468004321992693,-0.19760292131025745,-0.4360493871544002,-0.3710250994033089],[-0.4129729311599364,-0.4072277093325157,0.7681011930778414,-0.7280283571748312],[0.625232864268169,-0.4886089264124828,0.12798234053376226,0.0057010371537841165],[0.459002195288008,0.029890464486998947,0.03282092759400171,-0.0754937283260382],[0.22413563244122015,-0.03857014571466244,-0.21887990661558918,-0.023087153471480937],[-0.06650377653263062,0.06557759897490495,-0.02888484118337048,-0.23434921668883213]]}]}